{"weights": [-0.07907077665217428, 0.06244423570533171, -0.04370893297198074, -0.05828179698121707, -0.026638796018138938, 0.1175803901535334, -0.01797685328508602, -0.0008608735787124461, -0.04260265980299748, 0.04948811499672062, -0.044919536362778525, 0.070931850759935, -0.00859150494463612, -0.031123025823012792, -0.08461495887637246, 0.025628706248995044, -0.0074026655675915026, 0.009132516653293685, -0.016103090028323493, -0.03767420207656775, -0.009147979969756675, -0.022486232044195732, -0.005579917714429007, -0.0024528036466832884, -3.705768729392646e-06, 0.040755794089450195, 0.03532760626341823, -0.033886676477633715, 0.04056283126313483, -0.05379384922937782, 0.03205725095388385, -0.01976095629922066, 0.01884949195371953, 0.003118424140038326, -0.006524791339755387, -0.0227044052183556, 0.018219833248147896, 0.03325306874208698, 0.01996566168985268, 0.014499775198020466, -0.014882836469366757, -0.0039026116964702576, 0.010416032012065451, 0.012361487279621317, -0.0032094805833680364, -0.007678450391952339, 0.01227300410599499, 0.005737298649967977, 0.0035461566558343902, 0.008695754961502175, -0.049166550477209726, 0.04344062502644955, -0.01087391912870446, 0.02855996273107555, 0.0039514134267644874, 0.01608979642658434, -0.009531717449001689, 0.01023925617768033, 0.019443835764719704, -0.027917890839144463, 0.03364160856723186, -0.039134697787127665, -0.022058750318674412, 0.0011787798239385823, -0.01946238366243238, 0.022336834080048818, 0.006449056888437337, 0.018603241319850375, 0.0024144236280030386, 0.01921789741935552, 0.006425106484658652, 0.018935534885512754, -0.002197352074061288, -0.003404495537166013, 0.008662470182270355, 0.02290048691995375, 0.011903503679327817, -0.025201290936540655, 6.314195307614257e-05, -0.0009028076176068622, -0.032991541922408725, -0.019945378148727957, 0.00126632473992006, 0.009057735696175849, 0.03247621187629116, -0.04236649522628669, 0.020029407245656567, -0.0124946757723634, -0.015033379567375443, -0.008571022724208946, 0.030257265319097424, -0.015140449617944826, -0.007635640255491566, -0.008949468778353313, 0.03897869918700934, 4.6514199088156614e-05, 0.0005570607429358594, 0.013148273785069298, 0.013409600848615241, -0.01103208787966703], "bias": -0.05425924242424282}